{
  "model_name": "demand_nn_v1_tiny_mlp",
  "model_input_version": "v1",
  "normalization": {
    "mean": [
      0.4309672161291537,
      4.8183426469415505,
      171.39857715954025,
      0.32727272727272727,
      0.36363636363636365,
      0.3090909090909091,
      170.38561102840572,
      0.4388924681252356,
      0.2863636363636364,
      0.29545454545454547,
      0.18636363636363637,
      0.2318181818181818
    ],
    "std": [
      0.25343338895464274,
      1.6627008310533378,
      75.22623724728065,
      0.46921774183868875,
      0.48104569292083466,
      0.46211872825959394,
      82.6721484127923,
      0.20308715234613187,
      0.4520613942068394,
      0.4562468159064712,
      0.3893998348804974,
      0.4219934980502593
    ]
  },
  "layers": [
    {
      "weights": [
        [
          10.066973500152724,
          -1.6964888651985577,
          11.724436290233621,
          -48.205178658879895,
          25.460687301766622,
          22.444110529679335,
          25.39985944755551,
          31.734760021459596,
          20.913810356593757,
          -51.16130065182063,
          15.830785629861479,
          18.325819942829657
        ],
        [
          8.68206189832896,
          -1.4333036977413625,
          10.07761241897128,
          -41.4521939817038,
          21.94164978011464,
          19.269519513105358,
          21.890889223359874,
          27.32814435799712,
          18.015016294961757,
          -44.01767919049832,
          13.556131591435614,
          15.730587738269984
        ],
        [
          45.29306762779613,
          -3.219026566992963,
          57.48133324499622,
          -205.69314679937742,
          108.05842017163134,
          96.36693291562786,
          117.79081477941973,
          150.9872451902059,
          90.48956799813887,
          -235.21285111766306,
          68.26228034136948,
          94.39468732683939
        ],
        [
          7.434780571812643,
          -1.3626022818724208,
          8.690221632747882,
          -36.10510756550554,
          18.91075751840387,
          16.912802200520304,
          18.90342337804658,
          23.87839066542026,
          15.710034793555142,
          -38.358930232135535,
          11.846866111887561,
          13.731378281114223
        ]
      ],
      "bias": [
        -33.016891068544915,
        -28.389979638861295,
        -142.71377700305666,
        -24.739544987711092
      ]
    },
    {
      "weights": [
        [
          -44.16031755630358,
          -31.938049674633362,
          -258.7884747341248,
          -43.42331735315086
        ],
        [
          -28.927195227500793,
          -20.877842804606882,
          -169.66322149984006,
          -28.52478616183094
        ],
        [
          -0.02990108877821689,
          -0.03192646028235405,
          -0.04163436291551645,
          -0.04490024966388191
        ]
      ],
      "bias": [
        -20.286858428782335,
        -13.281820551746138,
        0.0
      ]
    },
    {
      "weights": [
        [
          -83.17459452111747,
          -53.56638834196487,
          -0.004171906793985172
        ]
      ],
      "bias": [
        225.0783858354379
      ]
    }
  ]
}
